[2.86371327 4.50433868 2.76483363 4.55316098 2.37259383 1.71317909],"[  2.10420401  13.68556204  -9.32291318   2.02041271   6.06777202
 -10.71606049]","[  2.22388409   3.59039341   3.86979742  -5.50206246   3.1664895
 -12.28799469]",[ 5.47472292  6.85534099 -6.83487836 -0.1960205   3.47580047 -6.59130133],"[ -0.97531398   6.54494524   1.16550185  -3.88910495  -1.41004378
 -10.22538553]",[ 5.63703697  1.53641407 -6.48233329 -3.09873277 -5.35575284 -7.81140259]
[-7.5990292  -0.04752861  1.95043827 -3.36906674  2.02608674  3.59812679],[-5.53254272  6.18582729  2.88834161  1.1152645   2.75207596  2.64966138],[-6.13396288  1.59914456  1.66402629  1.04851535  2.22504303  4.11700384],[10.38906738 -7.51035703  6.3403156  -3.69261772  1.14598635 -2.84826189],[-3.27987771  2.44606642  3.42676501 -0.83775887  5.2870561  -0.87270336],[-6.50457071  1.79110482  4.0879038   2.7421518   1.59044541  4.07818926]
[ 0.81152337 -0.66395822 -1.5894287   2.06078734  0.12868358  1.91302955],"[-2.43931850e-01  1.97384921e-02  1.97915976e-01  1.95750476e-04
 -7.12059548e-03  3.50919098e-02]",[ 2.59985079  1.5399329  -3.44941065 -1.1508464  -1.85994187  2.74234105],[ 0.98526871 -2.47090247  0.49266213  0.91169769 -0.14001382  2.04591548],[ 3.40676215  1.4817441   3.02332171 -0.17503424  2.36656253  0.62089699],[-0.07412264  2.78989482  1.43530639 -4.00054675  1.88036035 -3.67671282]
[-0.01500854  0.01286082  1.48435367  0.03597497 -3.2536053   1.76709536]
