[-1.16442668  0.77919206 -2.06713138  0.01090185 -2.71244783 -1.20206273],[-2.30628558 -2.39093343 -1.90976081  0.29556101  0.5561258  -1.0933306 ],[-1.12818539  1.28584192 -2.58997679  0.14551466 -1.39403901 -1.85855744],[-0.7791334   2.77782815 -2.71878187 -0.92442776 -4.1007273  -1.45142218],[-0.23176904 -1.78899727  0.85762342  1.51460311  4.41841695 -1.78233173],[-1.21108923  0.77706689 -2.3127434   0.24474067 -1.22981056 -1.64117844]
[-4.51108855 -5.79746074 -2.03436349 -3.56322713  0.73873551 -1.85466967],[-0.43801458 -0.71758993 -0.4459079  -0.23846805 -1.46361021 -0.43569191],[ 2.44888803  3.49682434  1.06304523  1.63541575 -1.18724077  0.98842028],[-5.1465203  -6.38642259 -2.58546761 -4.04438538  1.32157505 -1.92688158],[-5.79573725 -6.87512798 -2.47492878 -4.6133536   2.04687166 -2.76370714],[-2.27845115 -2.9531483  -0.68694988 -1.22222322 -1.10224798 -1.03609492]
[-1.71836592 -0.37829909  1.02512774 -2.59365617 -1.94486292 -0.76705608],[-1.69117054 -0.51957763  1.0629494  -1.84883601 -2.54178143 -0.7755784 ],[-1.88368905  0.14652589  2.01247838 -3.0681386  -2.80074824 -0.87846114],[ 2.27245726 -0.26948059 -1.86676363  2.28582601  3.13051067  0.37141189],[-2.16316471  0.33856029  1.45729061 -2.02520699 -2.79569785 -1.04601708],[-2.05655065 -0.06083672  1.17302634 -1.9248777  -2.53300992 -0.75553049]
[-4.21518999 -4.0994459  -5.39626226  8.32314788 -4.64321864 -4.15204549]
