[-1.58678784 -2.95382572 -1.96755773 -2.19907526 -0.70795708 -0.65898394],[ 0.20105962  0.93749041 -0.78268397  1.91095472  2.20049823 -2.08907262],[-2.33965117 -1.80833138 -0.75444153  0.65002139 -3.77807772 -0.00975368],[-1.31488412  0.25578052 -1.93511689  0.75812945 -1.49421172 -1.33699256],[ 0.1506093   1.30562316 -0.7721201   1.06134007  1.85555771 -1.82693865],[-1.15662512  0.60202657 -1.84775389  0.53111216 -1.35870459 -1.42738703]
[1.49576497 0.11343624 1.00811628 0.68183547 0.14609474 1.05803038],[-4.21038761  0.8929227  -4.61984715 -1.01341372  0.05767379 -1.51168149],[-4.0571383   0.40558853 -4.22920085 -1.50016735  0.32328887 -0.76709142],[-7.57113171  1.03401942 -7.66162975 -2.32286991  1.50057632 -1.79980021],[-3.16081705  0.69082954 -3.52170103 -1.33008696 -0.22263449 -0.773379  ],[ 0.8083865  -0.04683565  0.20262063  0.60439622 -0.2435928  -0.13725694]
[ 1.0217711  -0.97374771 -0.73587942 -2.47940739 -0.74218392  0.27534008],[-1.25689506  1.75778259  0.9325632   2.94765073  1.07736397 -0.95766886],[ 0.89157388 -0.91944277 -1.22506566 -2.27050337 -1.1633052   0.73974951],[ 1.10253068 -0.77436747 -1.71964867 -2.5890892  -0.63188827  0.51042953],[ 1.34518862 -1.62182868 -1.09833794 -2.58132505 -1.2559264   0.75758226],[ 1.3513676  -1.68979734 -1.54781245 -2.19607602 -0.58498631  0.5775364 ]
[-4.58957211  4.73660296 -4.8709866  -5.01267356 -5.06789854 -4.69133034]
