"[-1.69506215e+00 -2.18697384e-01 -2.30279385e+00 -1.10676472e-04
  2.16089954e-01 -1.09659775e+00]",[ 0.84107529 -0.51514235  0.52260424  1.55306777  4.74787553 -0.89918945],[-1.59245345 -1.61228298 -2.0429432   1.61621328  0.38157237 -1.21748509],[-0.7903838   2.44498313 -2.94475221 -0.24344711 -1.94093914 -1.93684591],[-0.87988757  1.99109025 -2.38416782 -0.60400996 -3.1473233  -1.15222482],[-0.73997412  2.76857204 -2.79362364 -0.69551133 -2.97561181 -1.6245938 ]
[-1.5185672   0.28225626 -3.9530375  -2.51701503 -2.11871279 -2.17164319],[-1.33656462  2.08787106 -6.17538112 -4.15443724 -3.04592692 -3.45444092],[-1.03981535  0.29395889 -4.35193354 -3.09657618 -2.23739527 -2.08404013],"[ -1.82068227   4.68983728 -10.09591706  -7.36393898  -5.63889346
  -5.38276954]",[-1.37300317 -1.12068373  6.10956891  4.01392311  1.03901586  1.70489259],[-0.96467247 -1.20703025 -1.33197686 -0.23600501 -1.05846073 -0.52390902]
[-1.08489433 -1.58973997 -1.8782781  -3.93313957  2.61147754 -0.38770123],[ 0.60612849  2.26269406  1.31502803  4.56207477 -2.90767457 -0.25940849],[-1.27875061 -1.93673035 -0.89738724 -3.14854891  1.64382184 -0.70382856],[-0.86213943 -2.30374158 -1.66085849 -3.08222779  1.76288105 -0.08783502],[-1.28364477 -2.21809558 -0.8965926  -4.39849098  2.88680071  0.27569808],[-1.66221238 -1.87848436 -0.69317224 -3.96126364  2.34907382  0.14697409]
[-5.18006875 10.61133161 -4.61011851 -4.74263416 -5.98250507 -5.39345533]
