[-1.12655993  2.4551819  -2.75134933 -0.93809323 -3.44791318 -2.19509803],[-1.51287067  0.3981435  -2.1512129   0.3294723  -0.70262023 -2.28358637],[-1.38993693  1.30189793 -2.55755135 -0.00648569 -1.47669684 -2.56692272],[-2.22524697 -3.15156274 -0.71814673  0.52897863 -1.28928934 -0.81416905],[-1.22605395  2.01842703 -2.65651164 -0.61579103 -2.39201481 -2.37620096],[-1.09226832 -2.04401534  2.35403016 -0.82384988  2.61838375 -5.1317235 ]
[-3.0419718  -0.80462043 -3.25753984 -8.51404261 -3.32036334  1.18252623],[-1.46002751 -1.00653617 -1.42338354 -3.73617191 -2.46626494 -0.51940945],[-1.56567564 -0.95697876 -1.30130813 -4.59903694 -2.42139294 -0.38528109],[-3.50472046 -1.33718274 -2.71258598 -8.11211163 -3.23560283  1.48347496],[ 3.44339148  2.38765556  3.63939166  2.5701343   3.45711186 -2.42796855],[-3.21195426 -1.53518022 -3.2884615  -8.28575798 -4.2352103   2.34685727]
[ 3.69853974  1.91626732  1.35567926  3.78132576 -4.73293511  4.01798886],[-3.64437454 -1.4284838  -1.98653678 -3.53321716  4.28532669 -3.23220726],[-3.27021657 -1.2767094  -2.10376213 -3.03230192  3.89940071 -3.28716993],[-1.64535826 -1.22032586 -0.70066561 -1.14647845  0.16783561 -1.85553267],[-2.06655586 -1.41982986 -1.84037146 -2.43687692  2.87682443 -2.90521866],[-1.79424406 -1.45457699 -1.18937781 -1.92328236  2.11667795 -2.90598222]
[10.85434942 -6.00686425 -5.62115961 -1.86695447 -4.02051316 -3.25306677]
