[ 4.29524263 14.32176908 -4.57793271 -7.68610192  4.00248707 -6.90333767],[3.81912941 2.21604823 2.96936623 2.42019761 3.51180206 2.41816193],[ 1.71297102  5.63918691 -4.86860774  6.81355024  4.68677117 -9.51321238],[-0.85719297  5.08856353 -1.59464598 10.29906474 -1.64599024  0.47164986],[3.69509901 2.28173064 1.41952016 3.17839384 4.76542586 1.62683535],"[  4.55330016   1.15877313  -5.30777176   8.24094464   7.53677993
 -10.5809675 ]"
[ 8.50257342 -7.36235384  4.80079928  4.77444441 -7.21552464  4.14674957],[ 4.9848011  -4.78801878  0.00813044  3.76639516 -5.2718559   4.89025617],[0.72153038 1.1452045  0.45470723 0.55986911 3.98217157 1.11646154],[ 3.63753147 -5.62874146  5.64498388  2.89046269 -4.50849674  1.58346449],[ 1.93927026 -3.78548296  3.7535158   3.48164197 -3.49499619  4.64529003],[ 4.95258983 -5.59971111  5.30103412  3.32049805 -4.6923781   2.49589231]
[-1.43659355 -0.16907144  3.33670093 -1.26868202  2.29625882 -0.32040195],[ 2.9609982  -0.4783353   2.48746073 -2.02474096  0.32042473  1.18042562],[-0.70114416  1.51520822  2.50852224  2.50694246 -0.23803256 -1.28393961],[ 1.17154671  1.98504857  0.00456008 -1.14666256 -0.43216876 -0.36788954],[-1.38067307 -1.16827776  0.21068403  0.11712683 -1.42534888 -0.75816516],[-0.36048095 -0.37158151  0.04050078  0.56158561  0.05778655  0.225424  ]
[ 0.9638894  -0.14281753 -0.36021741  0.67315853 -0.11715127 -0.10572467]
